0.005
0.095
-0.219
-17.189
-16.692
-23.149
-22.478
-15.965
-3.498
-22.677
-11.841
-21.08
-12.682
0.338
0.284
0.229
0.189
-31.632
107.541
106.039
113.87
120.218
120.273
116.491
120.208
120.039
120.083
107.382
113.999
120.198
120.287
99.651
120.188
107.77
120.034
120.357
110.511
117.979
120.248
120.496
120.198
120.362
120.397
120.123
117.467
120.188
112.676
96.561
98.795
119.924
120.407
120.417
118.457
104.407
91.581
104.511
92.113
116.536
119.646
-228.936
-223.429
95.049
100.029
72.496
81.452
83.835
95.84
98.506
98.884
98.715
88.576
96.894
92.581
91.392
92.735
77.412
78.944
103.984
79.312
101.506
-228.817
84.407
95.989
82.098
91.74
71.825
85.019
94.407
88.039
93.611
96.143
90.243
86.964
107.183
71.621
77.412
95.7
86.765
80.611
99.472
99.591
99.74
69.412
73.054
107.278
107.203
87.899
105.278
105.481
104.87
101.74
86.879
103.163
-9.53
4.42
4.445
4.027
-17.51
-0.401
-4.565
-1.217
-21.973
-0.48
-0.54
-0.47
-24.883
-14.814
-11.301
-23.709
-13.147
-9.998
-23.192
2.559
-22.187
-11.699
-22.928
-338.814
1.669
-13.381
-7.441
-1.819
-1.679
-1.933
-1.655
-0.043
-12.983
1.744
-8.371
-15.858
0.142
-16.197
3.246
8.729
7.768
4.53
-0.625
13.112
19.52
18.853
22.982
5.669
-1.167
2.729
38.311
37.022
-9.819
-5.988
-13.252
1.694
23.077
13.246
17.435
-8.55
7.176
1.863
12.947
12.987
23.893
18.748
17.395
25.161
17.012
21.107
25.49
22.216
8.221
13.042
-9.54
2.818
-24.003
-1.441
-1.157
3.913
-6.182
-8.868
-13.62
3.943
0.321
-11.53
-8.237
-12.446
-4.988
-8.048
4.768
4.604
-13.043
-15.978
-3.431
-12.013
3.092
-6.744
5.032
-0.625
-12.988
3.077
-3.217
-2.893
-16.281
1.748
1.753
-22.276
-15.197
-4.167
0.286
-12.938
-15.326
-16.893
-6.5
-14.928
-653.913
4.674
-10.669
-5.59
-1.714
-7.998
-15.809
-0.625
-12.465
-652.635
4.594
-1.306
-5.839
0.758
1.813
-3.46
-7.918
-5.321
-8.207
13.017
8.833
-7.56
6.943
-8.411
-322.217
-3.077
7.763
-0.993
11.276
21.425
8.739
-2.525
-5.699
-4.207
11.41
-3.212
11.36
-5.719
-5.938
-6.271
21.913
2.206
11.132
14.684
4.977
8.619
-9.326
11.127
11.316
11.36
-8.237
11.943
-2.754
14.311
2.544
9.579
-8.396
2.341
5.37
11.808
11.808
11.793
12.52
-0.834
-10.958
-5.212
7.992
7.972
7.918
-2.913
11.644
11.579
-652.147
8.952
8.928
16.793
-4.043
-14.819
8.833
8.898
-8.266
11.38
11.062
11.341
-6.242
3.087
-4.774
-8.321
2.306
11.5
10.679
11.102
11.301
11.146
11.201
8.564
22.982
5.744
22.813
-3.645
7.341
16.186
23.012
4.042
10.913
-1.416
3.858
8.798
23.067
-8.406
10.848
0.803
10.674
10.808
10.35
10.684
-1.525
-0.456
10.793
13.739
-2.446
-4.033
22.813
8.609
-1.64
-8.769
-8.117
4.385
8.569
23.127
19.171
15.455
11.365
21.868
23.161
22.554
0.019
-0.155
-0.035
-0.254
-0.035
0.029
